tree
version=v4
num_class=1
num_tree_per_iteration=1
label_index=0
max_feature_idx=8
objective=binary sigmoid:1
feature_names=price cost price_margin review_count avg_pos_prob predicted_sales_next_28_days inventory_score_inv avg_rating initial_inventory
feature_infos=[50.005235639914765:499.8729529787588] [30.003141383948851:299.92377178725525] [20.002094255965911:199.94918119150361] [4:2598] [0.220525:0.99543000000000004] none none [1:5] [50:499]
tree_sizes=3388 3470 3481 3481 3492 3485 3485 3495 3491

Tree=0
num_leaves=31
num_cat=0
split_feature=3 3 3 3 3 3 3 3 3 3 3 3 3 3 3 3 3 3 3 3 3 3 3 3 3 3 3 3 3 3
split_gain=123067 14900.5 14401.9 2342.32 2219.77 1700.82 1355.9 339.253 271.316 266.573 264.931 237.729 196.253 195.66 66.3333 56.7771 50.2937 44.4639 32.7492 28.9637 28.1662 27.9843 25.0498 21.7363 20.0052 19.8449 18.698 14.4747 13.9482 13.4876
threshold=53.500000000000007 19.500000000000004 143.50000000000003 351.50000000000006 9.5000000000000018 32.500000000000007 94.500000000000014 14.500000000000002 67.500000000000014 653.00000000000011 217.00000000000003 40.500000000000007 6.5000000000000009 25.500000000000004 125.50000000000001 12.500000000000002 78.500000000000014 496.00000000000006 249.00000000000003 7.5000000000000009 879.50000000000011 187.50000000000003 48.500000000000007 59.500000000000007 22.500000000000004 16.500000000000004 5.5000000000000009 27.500000000000004 101.50000000000001 38.500000000000007
decision_type=2 2 2 2 2 2 2 2 2 2 2 2 2 2 2 2 2 2 2 2 2 2 2 2 2 2 2 2 2 2
left_child=1 4 6 10 12 13 8 15 23 17 21 29 26 24 28 -6 -10 -5 -12 -14 -11 -4 -13 -2 -3 -9 -1 -15 -8 -7
right_child=2 5 3 9 7 11 14 25 16 20 18 22 19 27 -16 -17 -18 -19 -20 -21 -22 -23 -24 -25 -26 -27 -28 -29 -30 -31
leaf_value=-1.4339034725110289 -1.3331634174463949 -1.392680402297646 -1.2485586137369644 -1.1950909303142296 -1.4171469826538277 -1.3654951389600725 -1.2898178062202779 -1.4054700202819808 -1.3138400980806608 -1.1709031609138383 -1.2282596044203848 -1.3490669651214442 -1.4281424418316782 -1.3810672601475826 -1.2670327134540993 -1.4108360604327832 -1.3016873511682356 -1.1802303850205296 -1.2127836934098626 -1.4240649994876777 -1.1535857719542599 -1.237699703634239 -1.3408154129829688 -1.3244321036641884 -1.3872023009728673 -1.4007660334232226 -1.431015663038901 -1.3751504260301723 -1.2800906257191658 -1.3576795689379184
leaf_weight=13366.878149434924 1371.3760320097208 3697.5176513195038 1712.8206767141819 1198.6546192318201 11001.394430547953 2857.8996725380421 477.38279365003109 4271.3365671038628 1692.6698452234268 332.32879236340523 534.15696173906326 2862.3776350915432 7352.6545856148005 1504.9152724444866 1075.8305034786463 5271.6814161092043 1712.8206767141819 867.76517197489738 949.48798857629299 10683.77894371748 800.11595197021961 907.74698048830032 1355.223381370306 1484.2846592515707 3034.1394844651222 4719.4526769220829 9653.3677747100592 3300.738183632493 1616.384554579854 684.16870728135109
leaf_count=83581 8575 23120 10710 7495 68790 17870 2985 26708 10584 2078 3340 17898 45975 9410 6727 32963 10710 5426 5937 66804 5003 5676 8474 9281 18972 29510 60361 20639 10107 4278
internal_value=-1.38697 -1.41121 -1.26295 -1.21024 -1.42246 -1.37254 -1.30377 -1.4108 -1.31726 -1.17817 -1.23524 -1.35444 -1.42963 -1.38471 -1.27712 -1.4151 -1.30773 -1.18885 -1.21836 -1.42573 -1.15867 -1.2448 -1.34642 -1.32863 -1.39021 -1.403 -1.43269 -1.377 -1.28231 -1.36399
internal_weight=102351 85617.5 16733.8 7303.08 66320.5 19297 9430.75 25263.9 6261.15 3198.86 4104.21 7759.67 41056.7 11537.3 3169.6 16273.1 3405.49 2066.42 1483.64 18036.4 1132.44 2620.57 4217.6 2855.66 6731.66 8990.79 23020.2 4805.65 2093.77 3542.07
internal_count=639987 535353 104634 45665 414692 120661 58969 157971 39150 20002 25663 48520 256721 72141 19819 101753 21294 12921 9277 112779 7081 16386 26372 17856 42092 56218 143942 30049 13092 22148
is_linear=0
shrinkage=1


Tree=1
num_leaves=31
num_cat=0
split_feature=3 3 3 3 3 3 3 3 3 3 3 3 3 3 3 3 3 3 3 3 3 3 3 3 3 3 3 3 3 3
split_gain=104697 12525.9 11516 1897.36 1539.05 1395.75 1299.99 252.367 232.355 191.782 181.474 170.382 166.567 154.333 142.249 37.1623 33.5097 30.7877 29.8143 28.124 24.656 22.9164 21.953 21.9471 19.5282 18.383 12.9384 12.1745 11.9755 9.56113
threshold=49.500000000000007 18.500000000000004 143.50000000000003 9.5000000000000018 351.50000000000006 32.500000000000007 80.500000000000014 13.500000000000002 25.500000000000004 6.5000000000000009 217.00000000000003 101.50000000000001 605.00000000000011 66.500000000000014 40.500000000000007 20.500000000000004 127.50000000000001 59.500000000000007 11.500000000000002 7.5000000000000009 879.50000000000011 14.500000000000002 418.50000000000006 249.00000000000003 187.50000000000003 5.5000000000000009 28.500000000000004 94.500000000000014 35.500000000000007 8.5000000000000018
decision_type=2 2 2 2 2 2 2 2 2 2 2 2 2 2 2 2 2 2 2 2 2 2 2 2 2 2 2 2 2 2
left_child=1 3 6 9 10 8 13 18 15 25 24 27 22 17 28 -3 -13 -2 -5 -11 -14 -9 -6 -12 -4 -1 -10 -8 -7 -21
right_child=2 5 4 7 12 14 11 21 26 19 23 16 20 -15 -16 -17 -18 -19 -20 29 -22 -23 -24 -25 -26 -27 -28 -29 -30 -31
leaf_value=-0.045827775324608189 0.047355174547108976 -0.0091270451556477086 0.12119017784830516 -0.030141925434722661 0.15930955412189352 0.018384196718230255 0.078106699822615866 -0.021808307728242694 0.0066711631034767731 -0.040047000341515163 0.13736448908556467 0.095665506900794423 0.18036646735181541 0.067343131190381725 0.035893136549199116 -0.0019620003325651709 0.10695890256130608 0.05672198872353057 -0.025432723493133958 -0.037288530864859941 0.19384061173141665 -0.016183459331653983 0.17026971787878142 0.1494507947854439 0.12988865218921605 -0.042924843307858555 0.011863123896984256 0.087136033723461445 0.024193631760573524 -0.034231171960491906
leaf_weight=12991.692618593574 2352.546990826726 2714.0822706818581 1855.4342973232269 7556.6859143227339 659.40909573435783 1599.5679944753647 1429.3242680579424 2389.2848144173622 2211.9444954097271 7171.6062046587467 585.13525277376175 1857.693418443203 540.82795691490173 2279.8090591281652 3383.840100467205 5430.888491615653 1016.1234571635723 1398.9371475577354 6053.4121305644512 5978.2270076572895 912.11713349819183 7478.6964186280966 1487.5156530439854 1048.9027061015368 989.24239057302475 9399.0800532698631 2622.706031113863 505.29455065727234 1991.5772640705109 4468.5405515134335
leaf_count=83581 14274 17072 10710 48119 3697 9874 8501 15156 13766 45975 3340 10908 2998 13644 20673 34011 5926 8430 38478 38229 5003 47227 8304 5937 5676 60361 16283 2985 12274 28575
internal_value=2.17915e-05 -0.0240562 0.106221 -0.034917 0.151409 0.0104983 0.0725438 -0.0236333 0.000804551 -0.0415385 0.131843 0.0919363 0.175751 0.0570832 0.0285372 -0.00434955 0.0996586 0.0508481 -0.0280474 -0.0376359 0.188825 -0.0175454 0.166903 0.145123 0.124215 -0.0446092 0.0094877 0.080465 0.021606 -0.0359808
internal_weight=102360 83441.8 18918.3 63487.2 8078.58 19954.6 10839.7 23478.1 12979.6 40009.1 4478.71 4808.44 3599.87 6031.29 6974.99 8144.97 2873.82 3751.48 13610.1 17618.4 1452.95 9867.98 2146.92 1634.04 2844.68 22390.8 4834.65 1934.62 3591.15 10446.8
internal_count=639987 529654 110333 405701 45665 123953 64668 148980 81132 256721 25663 28320 20002 36348 42821 51083 16834 22704 86597 112779 8001 62383 12001 9277 16386 143942 30049 11486 22148 66804
is_linear=0
shrinkage=0.05


Tree=2
num_leaves=31
num_cat=0
split_feature=3 3 3 3 3 3 3 3 3 3 3 3 3 3 3 3 3 3 3 3 3 3 3 3 3 3 3 3 3 3
split_gain=90514.6 11834.4 8555.28 1468.14 1349.33 1304.82 955.982 267.652 217.689 213.636 129.75 128.019 109.791 99.4874 69.5877 47.0928 32.5558 31.2697 18.9957 18.3559 18.094 18.039 17.9199 17.3595 15.8271 13.6609 12.8139 11.7533 11.6194 10.0221
threshold=41.500000000000007 134.50000000000003 14.500000000000002 67.500000000000014 264.50000000000006 25.500000000000004 8.5000000000000018 94.500000000000014 496.00000000000006 19.500000000000004 53.500000000000007 32.500000000000007 6.5000000000000009 11.500000000000002 185.50000000000003 879.50000000000011 78.500000000000014 402.00000000000006 143.50000000000003 38.500000000000007 5.5000000000000009 9.5000000000000018 16.500000000000004 22.500000000000004 111.50000000000001 59.500000000000007 48.500000000000007 27.500000000000004 12.500000000000002 217.00000000000003
decision_type=2 2 2 2 2 2 2 2 2 2 2 2 2 2 2 2 2 2 2 2 2 2 2 2 2 2 2 2 2 2
left_child=2 3 6 10 14 9 12 16 17 22 26 27 20 21 18 -10 -5 -6 -3 -13 -1 -8 -4 -11 -9 -12 -2 -7 -15 -16
right_child=1 4 5 7 8 11 13 24 15 23 25 19 -14 28 29 -17 -18 -19 -20 -21 -22 -23 -24 -25 -26 -27 -28 -29 -30 -31
leaf_value=-0.044828563752288206 0.033586631109979177 0.097651577539737078 -0.017059397547009397 0.060753861640171616 0.13273376246097218 0.0053095181068750384 -0.033232343556136287 0.081794985083290528 0.15317407446693432 -0.0051562677772967608 0.045879549122354535 0.01891920247887879 -0.037772079607595224 -0.025910815961481495 0.11469505136637347 0.16722550681444809 0.070116380254601554 0.14405793988440116 0.10753811674704671 0.026451164422836421 -0.041908767987793701 -0.029184234798462508 -0.012546772892068632 -4.4481788058090555e-05 0.089188185397918923 0.052582643421128117 0.039490059697032391 0.010616120925165715 -0.022068800743972286 0.12209621638138489
leaf_weight=12626.550428435206 2578.454174131155 655.74881494045258 4182.7445797324181 1835.700098991394 1346.6895552277565 1516.3524509966373 4375.1117918640375 1355.9403135180473 1473.0848959684372 3675.1230126470327 1454.8649281263351 2930.9599361717701 12837.991030588746 3195.9293063879013 1163.204304844141 1001.7978924959898 1878.809546649456 1113.7848647087812 1875.2985224127769 1117.2592943310738 9151.9456496536732 7418.0103593766689 4640.9339200407267 3030.2935679554939 1552.9875774532557 1591.665114954114 1428.4316486269236 3345.6825526058674 5121.5125589072704 753.82363623380661
leaf_count=83581 15437 3609 26708 10584 7035 9410 28575 7588 7504 23120 8575 17870 84204 20671 6238 5003 10710 5741 10148 6739 60361 48119 29510 18972 8622 9281 8474 20639 32963 3996
internal_value=-2.60014e-05 0.0871477 -0.0254187 0.057479 0.130391 -0.000822242 -0.0364027 0.0743841 0.148392 -0.00957355 0.0416044 0.0144298 -0.0414396 -0.0277326 0.110419 0.158862 0.0654895 0.13786 0.104977 0.0209979 -0.0436016 -0.030686 -0.0146859 -0.00284616 0.085742 0.0493816 0.0356912 0.00896112 -0.0235451 0.117605
internal_weight=102227 23060.3 79166.4 13676.9 9383.43 24439.3 54727.1 6623.44 4935.36 15529.1 7053.42 8910.25 34616.5 20110.6 4448.08 2474.88 3714.51 2460.47 2531.05 4048.22 21778.5 11793.1 8823.68 6705.42 2908.93 3046.53 4006.89 4862.04 8317.44 1917.03
internal_count=639987 128545 511442 79271 49274 152968 358474 37504 25283 98310 41767 54658 228146 130328 23991 12507 21294 12776 13757 24609 143942 76694 56218 42092 16210 17856 23911 30049 53634 10234
is_linear=0
shrinkage=0.05


Tree=3
num_leaves=31
num_cat=0
split_feature=3 3 3 3 3 3 3 3 3 3 3 3 3 3 3 3 3 3 3 3 3 3 3 3 3 3 3 3 3 3
split_gain=79199.9 9458.27 8040 1195.49 1174.81 1082.2 925.269 196.145 182.35 171.629 112.506 107.586 99.873 94.7324 74.8913 32.4135 29.3191 29.031 28.5105 17.8244 17.3177 16.6365 15.9323 15.7459 10.9867 10.8764 10.5013 9.91201 9.31509 8.00804
threshold=41.500000000000007 127.50000000000001 14.500000000000002 264.50000000000006 25.500000000000004 66.500000000000014 8.5000000000000018 19.500000000000004 94.500000000000014 554.50000000000011 32.500000000000007 6.5000000000000009 53.500000000000007 11.500000000000002 185.50000000000003 402.00000000000006 143.50000000000003 79.500000000000014 879.50000000000011 5.5000000000000009 9.5000000000000018 16.500000000000004 38.500000000000007 22.500000000000004 12.500000000000002 48.500000000000007 28.500000000000004 7.5000000000000009 59.500000000000007 197.50000000000003
decision_type=2 2 2 2 2 2 2 2 2 2 2 2 2 2 2 2 2 2 2 2 2 2 2 2 2 2 2 2 2 2
left_child=2 5 6 14 7 12 11 21 17 15 26 19 25 20 16 -5 -3 -7 -11 -1 -8 -4 -12 -9 -15 -2 -6 -13 -14 -16
right_child=1 3 4 9 10 8 13 23 -10 18 22 27 28 24 29 -17 -18 -19 -20 -21 -22 -23 -24 -25 -26 -27 -28 -29 -30 -31
leaf_value=-0.043850803612461756 0.03128585989882593 0.086674949084888958 -0.016381525064909547 0.11846156321642094 0.0059365955134890848 0.055864257258038119 -0.032253617379989462 -0.0049141455974691401 0.076745419394281325 0.13691081441897399 0.017770781371125234 -0.038055692212874734 0.042452861443450979 -0.025025530530947762 0.10073509820566073 0.12897108152449308 0.096773592521924592 0.064424045736790961 0.14800859454438317 -0.04091291100205293 -0.028247656442090159 -0.012013574585647155 0.024738692262891642 -4.2258814352545048e-05 -0.021261147772548596 0.036667455524234026 0.010589570998609393 -0.035232360397589313 0.048043705843915298 0.10754680044957443
leaf_weight=12271.764187902212 2628.3316410928965 1129.3118389248848 4139.1709201335907 1431.1053973734379 2230.0120768845081 2190.4012089669704 4284.8071318119764 3663.6898192465305 2599.9250717014074 1256.0282581448555 2963.4863283932209 6831.0572918504477 1492.6614999771118 3144.8598909080029 622.66224628686905 1505.4532814472914 1976.8650729656219 1808.3071117997169 1073.2233191430569 8912.1246657818556 7284.2220739275217 4605.4915255010128 1134.4103683233261 3030.2124316692352 5052.0645915567875 1460.6040990650654 2657.8884368687868 5704.8864548206329 1487.4556557834148 1405.2295320630074
leaf_count=83581 15437 5926 26708 7035 13766 12219 28575 23120 13893 5984 17870 45975 8575 20671 3162 7261 10148 9926 5003 60361 48119 29510 6739 18972 32963 8474 16283 38229 8430 7072
internal_value=-6.2557e-05 0.0792169 -0.0245531 0.11515 -0.000784235 0.0518751 -0.0354072 -0.00915022 0.0664374 0.131889 0.0135894 -0.0404422 0.0382819 -0.0268177 0.0979814 0.123849 0.093102 0.0597352 0.142024 -0.0426148 -0.0297313 -0.0140811 0.0196997 -0.00270873 -0.0227054 0.0332082 0.00846674 -0.0367708 0.0452434 0.105455
internal_weight=101978 24067.6 77910.1 10399.9 24424.4 13667.7 53485.8 15438.6 6598.63 5265.81 8985.8 33719.8 7069.05 19766 5134.07 2936.56 3106.18 3998.71 2329.25 21183.9 11569 8744.66 4097.9 6693.9 8196.92 4088.94 4887.9 12535.9 2980.12 2027.89
internal_count=639987 128545 511442 51591 152968 76954 358474 98310 36038 25283 54658 228146 40916 130328 26308 14296 16074 22145 10987 143942 76694 56218 24609 42092 53634 23911 30049 84204 17005 10234
is_linear=0
shrinkage=0.05


Tree=4
num_leaves=31
num_cat=0
split_feature=3 3 3 3 3 3 3 3 3 3 3 3 3 3 3 3 3 3 3 3 3 3 3 3 3 3 3 3 3 3
split_gain=69746.7 8079.98 7267.93 984.344 976.45 973.798 895.35 179.977 150.397 143.032 105.451 98.4259 90.1407 82.0933 61.2047 31.1792 24.3303 23.9875 19.6306 17.5685 16.616 15.4787 14.279 12.6474 10.3798 9.64002 9.58063 9.02244 7.84767 7.63625
threshold=40.500000000000007 127.50000000000001 14.500000000000002 264.50000000000006 66.500000000000014 25.500000000000004 8.5000000000000018 19.500000000000004 94.500000000000014 496.00000000000006 6.5000000000000009 53.500000000000007 11.500000000000002 32.500000000000007 185.50000000000003 879.50000000000011 78.500000000000014 143.50000000000003 402.00000000000006 5.5000000000000009 9.5000000000000018 17.500000000000004 22.500000000000004 48.500000000000007 12.500000000000002 7.5000000000000009 27.500000000000004 35.500000000000007 59.500000000000007 101.50000000000001
decision_type=2 2 2 2 2 2 2 2 2 2 2 2 2 2 2 2 2 2 2 2 2 2 2 2 2 2 2 2 2 2
left_child=2 4 6 14 11 7 10 21 16 18 19 23 20 26 17 -11 -6 -3 -5 -1 -8 -4 -9 -2 -14 -12 -7 -15 -13 -10
right_child=1 3 5 9 8 13 12 22 29 15 25 28 24 27 -16 -17 -18 -19 -20 -21 -22 -23 -24 -25 -26 -27 -28 -29 -30 -31
leaf_value=-0.042892155598168287 0.028513698268670774 0.07896158092237815 -0.014977364542958095 0.10709936400575643 0.051227786475258177 0.0047137157421739033 -0.031294173261932172 -0.0046827231308094108 0.06505108781248424 0.12265642666994819 -0.037071394607437996 0.039385832403039583 -0.024161648851076103 0.015091928775473716 0.095582237038242424 0.13343183422049645 0.058910930572257283 0.087906916918570527 0.11558394805583086 -0.039935375012870561 -0.027331641866644892 -0.010481744965752902 -4.0143902174681774e-05 0.034119153268950035 -0.020475520238888677 -0.034254276232323931 0.0094849182733830108 0.020047176338180834 0.044455313862312856 0.071547186388114678
leaf_weight=11927.549360528588 3097.9142653793097 1176.3499031662941 5814.2419818788767 1501.8063136637211 2108.9089737832546 1526.5220414102077 4197.6150747388601 3652.7979790866375 574.81753841042519 1655.3247529864311 6666.0500798374414 1527.5124181061983 3095.7097599059343 1651.8775388896465 2122.8481761217117 1129.3518758565187 2014.8675935268402 2065.004462659359 1248.4580067247152 8679.7214377373457 7155.2679978311062 2854.7651414275169 3030.1355359554291 1490.408319324255 4985.3450605273247 5577.6673492491245 3385.8184312880039 2069.431596159935 1526.1002790927887 2124.0890112668276
leaf_count=83581 17898 5926 37805 7035 11435 9410 28575 23120 2985 7504 45975 8575 20671 9874 10234 5003 10710 10148 5741 60361 48119 18413 18972 8474 32963 38229 20639 12274 8430 10908
internal_value=-9.08242e-05 0.0717354 -0.0239767 0.104246 0.0472386 -0.00118844 -0.0344307 -0.00874363 0.0609874 0.119039 -0.0394632 0.0349637 -0.0259238 0.0122458 0.0889827 0.127026 0.0549818 0.0846605 0.110951 -0.0416468 -0.0287967 -0.0134969 -0.00257771 0.0303345 -0.0218876 -0.035788 0.00800226 0.0178476 0.0419194 0.0701636
internal_weight=101634 25363.8 76270.5 10899.1 14464.6 23985.6 52284.9 15351.9 6822.68 5534.94 32851 7641.94 19433.9 8633.65 5364.2 2784.68 4123.78 3241.35 2750.26 20607.3 11352.9 8669.01 6682.93 4588.32 8081.05 12243.7 4912.34 3721.31 3053.61 2698.91
internal_count=639987 131006 508981 51591 79415 150507 358474 98310 36038 25283 228146 43377 130328 52197 26308 12507 22145 16074 12776 143942 76694 56218 42092 26372 53634 84204 30049 22148 17005 13893
is_linear=0
shrinkage=0.05


Tree=5
num_leaves=31
num_cat=0
split_feature=3 3 3 3 3 3 3 3 3 3 3 3 3 3 3 3 3 3 3 3 3 3 3 3 3 3 3 3 3 4
split_gain=61726.3 6995.15 6727.71 970.964 865.719 861.19 826.856 135.681 111.571 102.365 99.0827 96.4338 83.9452 82.5595 77.6243 26.8988 21.2357 18.2201 15.1894 14.4954 12.7785 12.1677 10.8961 10.8169 10.3748 9.83792 9.6609 9.40943 9.02774 9.01271
threshold=41.500000000000007 14.500000000000002 126.50000000000001 23.500000000000004 68.500000000000014 305.50000000000006 8.5000000000000018 29.500000000000004 6.5000000000000009 11.500000000000002 19.500000000000004 196.00000000000003 90.500000000000014 605.00000000000011 54.500000000000007 35.500000000000007 5.5000000000000009 135.50000000000003 78.500000000000014 16.500000000000004 9.5000000000000018 7.5000000000000009 402.00000000000006 1993.0000000000002 229.50000000000003 102.50000000000001 13.500000000000002 26.500000000000004 47.500000000000007 0.81816875000000022
decision_type=2 2 2 2 2 2 2 2 2 2 2 2 2 2 2 2 2 2 2 2 2 2 2 2 2 2 2 2 2 2
left_child=1 6 4 10 14 11 8 27 16 20 19 17 18 22 28 -9 -1 -4 29 -3 -8 -10 -7 -15 -13 -14 -11 -5 -2 -6
right_child=2 3 5 7 12 13 9 15 21 26 -12 24 25 23 -16 -17 -18 -19 -20 -21 -22 -23 -24 -25 -26 -27 -28 -29 -30 -31
leaf_value=-0.042101457930499013 0.026083940072651485 -0.015452123995530554 0.070737309272487767 0.001781540927572825 0.04668290430056616 0.10060985576145293 -0.030595760598913897 0.012164901002055223 -0.036072907915048462 -0.022061226816872458 -0.0042525733171151032 0.087497316938085989 0.059255403809974995 0.11713503240963215 0.038339763862133988 0.018879172854726865 -0.038803889102621711 0.07985628704961531 0.055248513784000045 -0.011335030216916673 -0.027085190010149886 -0.032878165388798238 0.10751030224303637 0.12642352639232632 0.093965337591092435 0.065135548636187826 -0.01821172294793336 0.0061969537974581115 0.030577339725574193 0.055134921237990055
leaf_weight=11580.032604932785 2382.5357896983624 4040.7592980265617 656.07945077121258 2717.0566966831684 1397.7143900543451 757.93130564689636 4106.7446193695068 3678.2102018594742 6537.3665976524353 5687.3321006447077 4716.8740193992853 1176.884936273098 1095.1358887553215 1492.3883124440908 3248.5222557038069 2509.3227661550045 8441.0630324184895 3318.1506352871656 1630.0564087629318 4539.8884593099356 7028.5959974527359 5477.7776831388474 2333.0185544490814 396.77172301709652 1310.1864778101444 2029.6278808563948 2284.5465671271086 2170.44459810853 2105.7790974974632 407.32741539180279
leaf_count=83480 13537 26586 3203 16926 7381 3408 28528 22057 46193 38365 29849 5468 5565 6423 17633 14656 60263 15771 8423 29527 48102 38390 10266 1693 5962 10090 15283 13237 11768 2151
internal_value=-0.00021907 -0.0230103 0.0666507 -0.000966138 0.0437823 0.0952262 -0.0335155 0.00996924 -0.0384253 -0.0252834 -0.0100738 0.0831831 0.0571444 0.110851 0.0324529 0.0148878 -0.0407112 0.0783509 0.0517498 -0.0132738 -0.0283799 -0.0346164 0.105818 0.119086 0.0909047 0.0630747 -0.0209581 0.00374234 0.0281921 0.0485902
internal_weight=101254 75516 25738.1 24372.6 14296.7 11441.4 51143.5 11075 32036.2 19107.2 13297.5 6461.3 6559.86 4980.11 7736.84 6187.53 20021.1 3974.23 3435.1 8580.65 11135.3 12015.1 3090.95 1889.16 2487.07 3124.76 7971.88 4887.5 4488.31 1805.04
internal_count=640184 511442 128742 152838 76548 52194 358604 66876 228326 130278 85962 30404 33610 21790 42938 36713 143743 18974 17955 56113 76630 84583 13674 8116 11430 15655 53648 30163 25305 9532
is_linear=0
shrinkage=0.05


Tree=6
num_leaves=31
num_cat=0
split_feature=3 3 3 3 3 3 3 3 3 3 3 3 3 3 3 3 3 3 3 3 3 3 3 3 3 3 3 3 4 3
split_gain=54906.1 6369.14 5957.62 887.53 876.18 759.498 643.643 122.517 113.903 85.0812 84.3693 84.2364 77.9332 75.1122 51.8109 25.6591 18.9668 14.327 14.0754 13.1765 13.111 11.6672 11.5544 11.0149 10.764 9.9413 9.47642 8.43203 7.12664 6.95746
threshold=38.500000000000007 126.50000000000001 13.500000000000002 66.500000000000014 23.500000000000004 305.50000000000006 7.5000000000000009 19.500000000000004 10.500000000000002 85.500000000000014 187.50000000000003 29.500000000000004 54.500000000000007 605.00000000000011 5.5000000000000009 16.500000000000004 46.500000000000007 8.5000000000000018 102.50000000000001 135.50000000000003 229.50000000000003 33.500000000000007 73.500000000000014 11.500000000000002 6.5000000000000009 402.00000000000006 1993.0000000000002 26.500000000000004 0.67885087719298265 20.500000000000004
decision_type=2 2 2 2 2 2 2 2 2 2 2 2 2 2 2 2 2 2 2 2 2 2 2 2 2 2 2 2 2 2
left_child=2 3 6 12 7 10 14 15 17 22 19 27 16 25 -1 -4 28 -8 -11 -3 -12 -13 -5 -10 -16 -7 -15 -6 -2 -9
right_child=1 5 4 9 11 13 8 29 23 18 20 21 -14 26 24 -17 -18 -19 -20 -21 -22 -23 -24 -25 -26 -27 -28 -29 -30 -31
leaf_value=-0.041176111452053903 0.011637296987453244 0.065226758460269429 -0.015793946354755443 0.04293377291948447 0.001690616531247628 0.09256965091077124 -0.031937305297703653 -0.0072090399988192534 -0.024917473268790857 0.053975619885584983 0.079829297907943741 0.010386842854038014 0.035016502745650817 0.10814101057665315 -0.037858005505173015 -0.010846499520220734 0.028233720318575156 -0.028567661993488171 0.060129315666743115 0.072954134356076991 0.08649666492780074 0.015182977525942016 0.048897549206194206 -0.021264614811978125 -0.035121616513932849 0.099060096115230853 0.11671476059656541 0.0058652204524984493 0.022951632872914522 -0.0028801040805262086
leaf_weight=11256.539952158928 145.82349872589111 675.40396556258202 6259.9136013388634 1384.0789209157228 2719.952454417944 781.90976929664612 5360.222550034523 1272.1710823625326 3265.5967171490192 1674.9940372258425 1623.2458959519863 2585.115266919136 2932.5679778456688 1534.5044838190079 8224.9135659039021 4507.9826003462076 2523.074788659811 7665.7945992052555 2087.1139959841967 3011.219631627202 1351.0233816504478 2488.7774522602558 1965.506419301033 5607.4443832337856 6382.6914235502481 2403.4729749411345 407.97212553024292 2178.3349530845881 3053.4513796567917 3432.5391514897346
leaf_count=83480 827 3203 41869 7158 16926 3408 38390 8119 22745 8332 7325 15472 15658 6423 60263 29527 13914 53885 10090 13914 5962 14568 10005 38365 46193 10266 1693 13237 17237 21730
internal_value=-0.000231314 0.0599283 -0.0228753 0.0391422 -0.00333305 0.0877282 -0.033286 -0.0107817 -0.0269781 0.0522292 0.0765929 0.00822418 0.0283888 0.102192 -0.0386268 -0.0137227 0.0249923 -0.0299543 0.0573895 0.0715384 0.0828579 0.0127394 0.0464333 -0.022609 -0.0366624 0.0974669 0.109942 0.00354712 0.0224359 -0.00405066
internal_weight=100763 27555.4 73208 15766.6 25444.8 11788.8 47763.2 15472.6 21899.1 7111.69 6660.89 9972.18 8654.92 5127.86 25864.1 10767.9 5722.35 13026 3762.11 3686.62 2974.27 5073.89 3349.59 8873.04 14607.6 3185.38 1942.48 4898.29 3199.27 4704.71
internal_count=640184 135415 504769 83221 161448 52194 343321 101245 153385 35585 30404 60203 47636 21790 189936 71396 31978 92275 18422 17117 13287 30040 17163 61110 106456 13674 8116 30163 18064 29849
is_linear=0
shrinkage=0.05


Tree=7
num_leaves=31
num_cat=0
split_feature=3 3 3 3 3 3 3 3 3 3 3 3 3 3 3 3 3 3 3 3 3 3 3 3 3 3 3 3 3 7
split_gain=49013.1 5602.28 5541.33 794.09 763.979 685.313 624.198 108.756 101.453 84.6656 74.4527 73.7283 70.1811 67.5185 50.9716 16.4863 15.3761 14.445 14.3097 13.8174 11.7662 11.4377 11.1105 10.5372 10.4365 9.27501 9.05059 7.12467 7.06735 6.7302
threshold=38.500000000000007 13.500000000000002 126.50000000000001 22.500000000000004 66.500000000000014 305.50000000000006 7.5000000000000009 10.500000000000002 28.500000000000004 18.500000000000004 187.50000000000003 90.500000000000014 605.00000000000011 54.500000000000007 5.5000000000000009 46.500000000000007 78.500000000000014 33.500000000000007 16.500000000000004 8.5000000000000018 231.50000000000003 135.50000000000003 20.500000000000004 6.5000000000000009 11.500000000000002 402.00000000000006 1267.5000000000002 26.500000000000004 102.50000000000001 4.6760731319554862
decision_type=2 2 2 2 2 2 2 2 2 2 2 2 2 2 2 2 2 2 2 2 2 2 2 2 2 2 2 2 2 2
left_child=1 6 4 9 13 10 14 19 27 18 21 16 25 15 -1 -2 -6 -10 -3 -8 -12 29 -11 -16 -9 -7 -14 -5 -13 -4
right_child=2 3 5 8 11 12 7 24 17 22 20 28 26 -15 23 -17 -18 -19 -20 -21 -22 -23 -24 -25 -26 -27 -28 -29 -30 -31
leaf_value=-0.040264495506216434 0.021052671974603081 -0.015159789381561949 0.062742371039680875 0.00070016909310573953 0.041212271103363812 0.085750275612440904 -0.031012813153878566 -0.024071994635441726 0.0092631613118345016 -0.0079456757597014573 0.074044722726931619 0.050859872675570031 0.099348305712328056 0.032679985168099161 -0.036926235645302716 0.026421734974601804 0.047487044151875157 0.014298476926127335 -0.011005692507430852 -0.027669819119671219 0.080328894001342091 0.067511144567697925 -0.003227632708191948 -0.034185383178527561 -0.020488859483871497 0.091944402987661544 0.10615382231641615 0.0047800114327378592 0.055719394226147481 0.050022266695967349
leaf_weight=10943.837312459946 3237.9642048180103 6197.3181932121515 564.98612432181835 3774.0342541337013 2274.8866889774799 801.35065412521362 5246.9309471547604 3212.6502329111099 3292.810730099678 2628.9255361557007 1756.8010260909796 1150.8744878768921 1106.0124859660864 2983.7525130212307 8016.1913637369871 2560.3049793988466 1710.3551377505064 2510.0317181646824 3115.1420293003321 7522.5127407461405 1293.1632239818573 3089.1663430184126 2375.2080717533827 6233.4581812024117 5530.7585755884647 2458.4799226969481 875.05001428723335 1493.569642201066 2138.2945438623428 127.4459506124258
leaf_count=83480 18064 41869 2614 23537 11507 3408 38390 22745 19634 17066 7724 5565 4548 15658 60263 13914 8423 14568 20580 53885 5563 13914 15119 46193 38365 10266 3568 9075 10090 589
internal_value=-0.00023992 -0.0220809 0.0557378 -0.00317548 0.0364947 0.0813312 -0.0323569 -0.0261017 0.00688077 -0.0109516 0.070897 0.0484783 0.0949323 0.0265684 -0.0376982 0.0234235 0.0439052 0.0114412 -0.0137702 -0.0290434 0.0767092 0.0662093 -0.00570626 -0.0357273 -0.0218054 0.0904217 0.102354 0.00185696 0.0540191 0.0604012
internal_weight=100222 72093.4 28128.9 25387 16056.4 12072.5 46706.3 21512.9 11070.4 14316.6 6831.56 7274.41 5240.89 8782.02 25193.5 5798.27 3985.24 5802.84 9312.46 12769.4 3049.96 3781.6 5004.13 14249.6 8743.41 3259.83 1981.06 5267.6 3289.17 692.432
internal_count=640184 504769 135415 161448 83221 52194 343321 153385 66814 94634 30404 35585 21790 47636 189936 31978 19930 34202 62449 92275 13287 17117 32185 106456 61110 13674 8116 32612 15655 3203
is_linear=0
shrinkage=0.05


Tree=8
num_leaves=31
num_cat=0
split_feature=3 3 3 3 3 3 3 3 3 3 3 3 3 3 3 3 3 3 3 3 3 3 3 3 3 3 7 7 3 3
split_gain=43867.5 5264.2 4879.13 720.929 662.043 629.446 604.902 103.742 103.412 67.344 67.0863 66.8056 64.051 59.1117 50.1268 21.9198 15.082 14.2399 13.8216 13.497 13.2841 10.3089 9.87806 8.98487 7.8456 7.38033 6.54288 6.50201 6.49021 6.45677
threshold=38.500000000000007 13.500000000000002 126.50000000000001 23.500000000000004 66.500000000000014 305.50000000000006 7.5000000000000009 10.500000000000002 19.500000000000004 707.50000000000011 196.00000000000003 29.500000000000004 90.500000000000014 48.500000000000007 5.5000000000000009 16.500000000000004 504.50000000000006 57.500000000000007 162.50000000000003 9.5000000000000018 78.500000000000014 6.5000000000000009 11.500000000000002 33.500000000000007 41.500000000000007 231.50000000000003 4.7211111111111119 4.5903263403263415 26.500000000000004 111.50000000000001
decision_type=2 2 2 2 2 2 2 2 2 2 2 2 2 2 2 2 2 2 2 2 2 2 2 2 2 2 2 2 2 2
left_child=1 6 4 8 13 10 14 19 15 16 18 28 20 24 -1 -3 -7 -15 26 -8 -6 -16 -9 -13 -2 -12 -4 -25 -5 -14
right_child=2 3 5 11 12 9 7 22 -10 -11 25 23 29 17 21 -17 -18 -19 -20 -21 -22 -23 -24 27 -26 -27 -28 -29 -30 -31
leaf_value=-0.039365237898920047 0.017002334437671386 -0.014546107832287573 0.059991839286217666 0.0015687494934870363 0.038414622395880491 0.082758590594102538 -0.029173689440082019 -0.023245956024773501 -0.0036854052720041216 0.097566862812218796 0.069535717648306059 0.0092936374123237277 0.048515617505541342 0.026033051444209004 -0.036007598902582892 -0.0099368326032416437 0.089308010344485267 0.031439497161509032 0.064861842358180988 -0.02551826236586438 0.044190559716511729 -0.033263504094329113 -0.019733727932994816 0.012047577189672462 0.021838230420991936 0.07478060712319072 0.049674114142295639 0.017979543968530218 0.0052229702502059796 0.053034600966054293
leaf_weight=10641.883635520935 1193.7071744054556 6137.398746907711 1971.7157190293074 2723.8390145301819 2317.3899474442005 2399.8290428817272 9014.6458068192005 3161.7888270318508 4682.7148899585009 1537.0682540684938 1364.7255221009254 2614.3631360530853 2085.911713168025 2576.0917409211397 7814.838954642415 4449.2162684351206 1387.0660575330257 2310.1245763897896 2154.8278078585863 3507.8763295263052 1745.1076564192772 6089.6062976270914 5457.1896726191044 1921.9236817955971 2820.2415001094341 1318.9452069103718 166.63900676369667 608.1063836067915 2193.6869007050991 1272.7561748921871
leaf_count=83480 6673 41869 8796 16926 11507 9922 66918 22745 29849 6205 5867 15472 9782 13649 60263 29527 5663 11900 9429 25357 8423 46193 38365 11066 15414 5563 749 3502 13237 5873
internal_value=-0.000245624 -0.0213069 0.052013 -0.00302506 0.0340913 0.0757924 -0.0314432 -0.0252439 -0.00987234 0.0887402 0.0659121 0.00736594 0.0451194 0.0248959 -0.0367825 -0.012609 0.0851575 0.0285891 0.0620357 -0.0281497 0.0408958 -0.0348058 -0.0210222 0.0113492 0.0204001 0.0721134 0.0591878 0.0134734 0.00319888 0.0502281
internal_weight=99641.2 71019.1 28622.1 25331.2 16321.3 12300.8 45687.8 21141.5 15269.3 5323.96 6976.85 10061.9 7421.17 8900.16 24546.3 10586.6 3786.9 4886.22 4293.18 12522.5 4062.5 13904.4 8618.98 5144.39 4013.95 2683.67 2138.35 2530.03 4917.53 3358.67
internal_count=640184 504769 135415 161448 83221 52194 343321 153385 101245 21790 30404 60203 35585 47636 189936 71396 15585 25549 18974 92275 19930 106456 61110 30040 22087 11430 9545 14568 30163 15655
is_linear=0
shrinkage=0.05


end of trees

feature_importances:
review_count=265
avg_rating=3
avg_pos_prob=2

parameters:
[boosting: gbdt]
[objective: binary]
[metric: auc,binary_error]
[tree_learner: serial]
[device_type: cpu]
[data_sample_strategy: bagging]
[data: ]
[valid: ]
[num_iterations: 300]
[learning_rate: 0.05]
[num_leaves: 31]
[num_threads: 0]
[seed: 42]
[deterministic: 0]
[force_col_wise: 0]
[force_row_wise: 0]
[histogram_pool_size: -1]
[max_depth: -1]
[min_data_in_leaf: 20]
[min_sum_hessian_in_leaf: 0.001]
[bagging_fraction: 0.8]
[pos_bagging_fraction: 1]
[neg_bagging_fraction: 1]
[bagging_freq: 5]
[bagging_seed: 400]
[bagging_by_query: 0]
[feature_fraction: 0.9]
[feature_fraction_bynode: 1]
[feature_fraction_seed: 30056]
[extra_trees: 0]
[extra_seed: 12879]
[early_stopping_round: 0]
[early_stopping_min_delta: 0]
[first_metric_only: 0]
[max_delta_step: 0]
[lambda_l1: 0]
[lambda_l2: 0]
[linear_lambda: 0]
[min_gain_to_split: 0]
[drop_rate: 0.1]
[max_drop: 50]
[skip_drop: 0.5]
[xgboost_dart_mode: 0]
[uniform_drop: 0]
[drop_seed: 17869]
[top_rate: 0.2]
[other_rate: 0.1]
[min_data_per_group: 100]
[max_cat_threshold: 32]
[cat_l2: 10]
[cat_smooth: 10]
[max_cat_to_onehot: 4]
[top_k: 20]
[monotone_constraints: ]
[monotone_constraints_method: basic]
[monotone_penalty: 0]
[feature_contri: ]
[forcedsplits_filename: ]
[refit_decay_rate: 0.9]
[cegb_tradeoff: 1]
[cegb_penalty_split: 0]
[cegb_penalty_feature_lazy: ]
[cegb_penalty_feature_coupled: ]
[path_smooth: 0]
[interaction_constraints: ]
[verbosity: -1]
[saved_feature_importance_type: 0]
[use_quantized_grad: 0]
[num_grad_quant_bins: 4]
[quant_train_renew_leaf: 0]
[stochastic_rounding: 1]
[linear_tree: 0]
[max_bin: 255]
[max_bin_by_feature: ]
[min_data_in_bin: 3]
[bin_construct_sample_cnt: 200000]
[data_random_seed: 175]
[is_enable_sparse: 1]
[enable_bundle: 1]
[use_missing: 1]
[zero_as_missing: 0]
[feature_pre_filter: 1]
[pre_partition: 0]
[two_round: 0]
[header: 0]
[label_column: ]
[weight_column: ]
[group_column: ]
[ignore_column: ]
[categorical_feature: ]
[forcedbins_filename: ]
[precise_float_parser: 0]
[parser_config_file: ]
[objective_seed: 16083]
[num_class: 1]
[is_unbalance: 0]
[scale_pos_weight: 1]
[sigmoid: 1]
[boost_from_average: 1]
[reg_sqrt: 0]
[alpha: 0.9]
[fair_c: 1]
[poisson_max_delta_step: 0.7]
[tweedie_variance_power: 1.5]
[lambdarank_truncation_level: 30]
[lambdarank_norm: 1]
[label_gain: ]
[lambdarank_position_bias_regularization: 0]
[eval_at: ]
[multi_error_top_k: 1]
[auc_mu_weights: ]
[num_machines: 1]
[local_listen_port: 12400]
[time_out: 120]
[machine_list_filename: ]
[machines: ]
[gpu_platform_id: -1]
[gpu_device_id: -1]
[gpu_use_dp: 0]
[num_gpu: 1]

end of parameters

pandas_categorical:[]
